
\data\
ngram 1=43

\1-grams:
-1	</s>
-1	<UNK>
-1	<s>
-1	BACKWARD_0
-1	BED_0
-1	BIRD_0
-1	CAT_0
-1	DOG_0
-1	DOWN_0
-1	EIGHT_0
-1	FIVE_0
-1	FOLLOW_0
-1	FORWARD_0
-1	FOUR_0
-1	GO_0
-1	HAPPY_0
-1	HOUSE_0
-1	LEARN_0
-1	LEFT_0
-1	MARVIN_0
-1	NINE_0
-1	NO_0
-1	OFF_0
-1	ONE_0
-1	ONE_1
-1	ON_0
-1	ON_1
-1	ON_2
-1	RIGHT_0
-1	SEVEN_0
-1	SHEILA_0
-1	SIX_0
-1	STOP_0
-1	THREE_0
-1	TREE_0
-1	TWO_0
-1	UP_0
-1	VISUAL_0
-1	WOW_0
-1	YES_0
-1	YES_1
-1	ZERO_0
-1	ZERO_1

\end\